digraph Tree {
node [shape=box] ;
0 [label="X[2] <= 1.5\ngini = 0.5\nsamples = 15286\nvalue = [7643.0, 7643.0]"] ;
1 [label="X[1] <= 0.106\ngini = 0.263\nsamples = 7995\nvalue = [4782.195, 880.163]"] ;
0 -> 1 [labeldistance=2.5, labelangle=45, headlabel="True"] ;
2 [label="X[1] <= 0.095\ngini = 0.029\nsamples = 5846\nvalue = [3645.008, 54.699]"] ;
1 -> 2 ;
3 [label="X[0] <= 0.383\ngini = 0.02\nsamples = 5595\nvalue = [3492.924, 34.809]"] ;
2 -> 3 ;
4 [label="X[6] <= -0.452\ngini = 0.004\nsamples = 3821\nvalue = [2390.159, 4.973]"] ;
3 -> 4 ;
5 [label="X[6] <= -0.466\ngini = 0.025\nsamples = 615\nvalue = [383.652, 4.973]"] ;
4 -> 5 ;
6 [label="gini = 0.0\nsamples = 527\nvalue = [329.828, 0.0]"] ;
5 -> 6 ;
7 [label="X[0] <= 0.269\ngini = 0.155\nsamples = 88\nvalue = [53.824, 4.973]"] ;
5 -> 7 ;
8 [label="gini = 0.338\nsamples = 31\nvalue = [18.15, 4.973]"] ;
7 -> 8 ;
9 [label="gini = 0.0\nsamples = 57\nvalue = [35.674, 0.0]"] ;
7 -> 9 ;
10 [label="gini = 0.0\nsamples = 3206\nvalue = [2006.507, 0.0]"] ;
4 -> 10 ;
11 [label="X[0] <= 0.391\ngini = 0.051\nsamples = 1774\nvalue = [1102.765, 29.836]"] ;
3 -> 11 ;
12 [label="X[6] <= -0.481\ngini = 0.171\nsamples = 313\nvalue = [190.887, 19.891]"] ;
11 -> 12 ;
13 [label="X[0] <= 0.388\ngini = 0.419\nsamples = 62\nvalue = [35.048, 14.918]"] ;
12 -> 13 ;
14 [label="X[0] <= 0.386\ngini = 0.359\nsamples = 42\nvalue = [24.409, 7.459]"] ;
13 -> 14 ;
15 [label="gini = 0.425\nsamples = 20\nvalue = [11.265, 4.973]"] ;
14 -> 15 ;
16 [label="gini = 0.268\nsamples = 22\nvalue = [13.143, 2.486]"] ;
14 -> 16 ;
17 [label="gini = 0.485\nsamples = 20\nvalue = [10.64, 7.459]"] ;
13 -> 17 ;
18 [label="X[6] <= -0.022\ngini = 0.06\nsamples = 251\nvalue = [155.839, 4.973]"] ;
12 -> 18 ;
19 [label="X[0] <= 0.388\ngini = 0.15\nsamples = 91\nvalue = [55.702, 4.973]"] ;
18 -> 19 ;
20 [label="X[0] <= 0.386\ngini = 0.221\nsamples = 57\nvalue = [34.422, 4.973]"] ;
19 -> 20 ;
21 [label="gini = -0.0\nsamples = 29\nvalue = [18.15, 0.0]"] ;
20 -> 21 ;
22 [label="gini = 0.359\nsamples = 28\nvalue = [16.272, 4.973]"] ;
20 -> 22 ;
23 [label="gini = 0.0\nsamples = 34\nvalue = [21.279, 0.0]"] ;
19 -> 23 ;
24 [label="gini = -0.0\nsamples = 160\nvalue = [100.138, 0.0]"] ;
18 -> 24 ;
25 [label="X[3] <= 0.764\ngini = 0.021\nsamples = 1461\nvalue = [911.878, 9.945]"] ;
11 -> 25 ;
26 [label="X[5] <= 0.368\ngini = 0.006\nsamples = 1404\nvalue = [878.081, 2.486]"] ;
25 -> 26 ;
27 [label="gini = 0.0\nsamples = 1300\nvalue = [813.618, 0.0]"] ;
26 -> 27 ;
28 [label="X[6] <= 0.022\ngini = 0.072\nsamples = 104\nvalue = [64.464, 2.486]"] ;
26 -> 28 ;
29 [label="gini = 0.0\nsamples = 83\nvalue = [51.946, 0.0]"] ;
28 -> 29 ;
30 [label="gini = 0.277\nsamples = 21\nvalue = [12.517, 2.486]"] ;
28 -> 30 ;
31 [label="X[0] <= 0.541\ngini = 0.296\nsamples = 57\nvalue = [33.796, 7.459]"] ;
25 -> 31 ;
32 [label="gini = 0.0\nsamples = 37\nvalue = [23.157, 0.0]"] ;
31 -> 32 ;
33 [label="gini = 0.485\nsamples = 20\nvalue = [10.64, 7.459]"] ;
31 -> 33 ;
34 [label="X[3] <= 0.65\ngini = 0.205\nsamples = 251\nvalue = [152.084, 19.891]"] ;
2 -> 34 ;
35 [label="X[0] <= 0.554\ngini = 0.069\nsamples = 217\nvalue = [134.56, 4.973]"] ;
34 -> 35 ;
36 [label="X[6] <= -0.452\ngini = 0.039\nsamples = 197\nvalue = [122.669, 2.486]"] ;
35 -> 36 ;
37 [label="X[0] <= 0.308\ngini = 0.109\nsamples = 66\nvalue = [40.681, 2.486]"] ;
36 -> 37 ;
38 [label="gini = 0.286\nsamples = 20\nvalue = [11.891, 2.486]"] ;
37 -> 38 ;
39 [label="gini = 0.0\nsamples = 46\nvalue = [28.79, 0.0]"] ;
37 -> 39 ;
40 [label="gini = 0.0\nsamples = 131\nvalue = [81.988, 0.0]"] ;
36 -> 40 ;
41 [label="gini = 0.286\nsamples = 20\nvalue = [11.891, 2.486]"] ;
35 -> 41 ;
42 [label="gini = 0.497\nsamples = 34\nvalue = [17.524, 14.918]"] ;
34 -> 42 ;
43 [label="X[0] <= 0.55\ngini = 0.487\nsamples = 2149\nvalue = [1137.187, 825.464]"] ;
1 -> 43 ;
44 [label="X[5] <= 0.129\ngini = 0.461\nsamples = 1751\nvalue = [959.443, 542.021]"] ;
43 -> 44 ;
45 [label="X[1] <= 0.369\ngini = 0.484\nsamples = 1422\nvalue = [757.29, 527.103]"] ;
44 -> 45 ;
46 [label="X[0] <= 0.072\ngini = 0.415\nsamples = 810\nvalue = [458.755, 191.448]"] ;
45 -> 46 ;
47 [label="gini = 0.0\nsamples = 144\nvalue = [90.124, 0.0]"] ;
46 -> 47 ;
48 [label="X[6] <= 0.067\ngini = 0.45\nsamples = 666\nvalue = [368.631, 191.448]"] ;
46 -> 48 ;
49 [label="X[4] <= 0.091\ngini = 0.478\nsamples = 490\nvalue = [263.487, 171.557]"] ;
48 -> 49 ;
50 [label="gini = 0.0\nsamples = 55\nvalue = [34.422, 0.0]"] ;
49 -> 50 ;
51 [label="X[3] <= 0.226\ngini = 0.49\nsamples = 435\nvalue = [229.065, 171.557]"] ;
49 -> 51 ;
52 [label="X[6] <= -0.422\ngini = 0.443\nsamples = 324\nvalue = [180.248, 89.508]"] ;
51 -> 52 ;
53 [label="X[0] <= 0.267\ngini = 0.32\nsamples = 152\nvalue = [89.498, 22.377]"] ;
52 -> 53 ;
54 [label="gini = 0.496\nsamples = 29\nvalue = [15.021, 12.432]"] ;
53 -> 54 ;
55 [label="X[1] <= 0.134\ngini = 0.208\nsamples = 123\nvalue = [74.477, 9.945]"] ;
53 -> 55 ;
56 [label="X[0] <= 0.378\ngini = 0.359\nsamples = 42\nvalue = [24.409, 7.459]"] ;
55 -> 56 ;
57 [label="gini = 0.416\nsamples = 21\nvalue = [11.891, 4.973]"] ;
56 -> 57 ;
58 [label="gini = 0.277\nsamples = 21\nvalue = [12.517, 2.486]"] ;
56 -> 58 ;
59 [label="X[4] <= 0.826\ngini = 0.09\nsamples = 81\nvalue = [50.069, 2.486]"] ;
55 -> 59 ;
60 [label="gini = 0.237\nsamples = 26\nvalue = [15.646, 2.486]"] ;
59 -> 60 ;
61 [label="gini = 0.0\nsamples = 55\nvalue = [34.422, 0.0]"] ;
59 -> 61 ;
62 [label="X[0] <= 0.512\ngini = 0.489\nsamples = 172\nvalue = [90.75, 67.131]"] ;
52 -> 62 ;
63 [label="X[0] <= 0.385\ngini = 0.5\nsamples = 133\nvalue = [66.341, 67.131]"] ;
62 -> 63 ;
64 [label="X[0] <= 0.327\ngini = 0.347\nsamples = 74\nvalue = [43.184, 12.432]"] ;
63 -> 64 ;
65 [label="gini = 0.0\nsamples = 30\nvalue = [18.776, 0.0]"] ;
64 -> 65 ;
66 [label="X[0] <= 0.377\ngini = 0.447\nsamples = 44\nvalue = [24.409, 12.432]"] ;
64 -> 66 ;
67 [label="gini = 0.496\nsamples = 23\nvalue = [11.891, 9.945]"] ;
66 -> 67 ;
68 [label="gini = 0.277\nsamples = 21\nvalue = [12.517, 2.486]"] ;
66 -> 68 ;
69 [label="X[0] <= 0.391\ngini = 0.418\nsamples = 59\nvalue = [23.157, 54.699]"] ;
63 -> 69 ;
70 [label="gini = 0.252\nsamples = 27\nvalue = [6.884, 39.781]"] ;
69 -> 70 ;
71 [label="gini = 0.499\nsamples = 32\nvalue = [16.272, 14.918]"] ;
69 -> 71 ;
72 [label="gini = -0.0\nsamples = 39\nvalue = [24.409, 0.0]"] ;
62 -> 72 ;
73 [label="X[0] <= 0.362\ngini = 0.468\nsamples = 111\nvalue = [48.817, 82.049]"] ;
51 -> 73 ;
74 [label="X[0] <= 0.321\ngini = 0.482\nsamples = 41\nvalue = [21.905, 14.918]"] ;
73 -> 74 ;
75 [label="gini = 0.49\nsamples = 20\nvalue = [9.388, 12.432]"] ;
74 -> 75 ;
76 [label="gini = 0.277\nsamples = 21\nvalue = [12.517, 2.486]"] ;
74 -> 76 ;
77 [label="X[4] <= 0.626\ngini = 0.409\nsamples = 70\nvalue = [26.912, 67.131]"] ;
73 -> 77 ;
78 [label="gini = 0.246\nsamples = 30\nvalue = [7.51, 44.754]"] ;
77 -> 78 ;
79 [label="X[0] <= 0.397\ngini = 0.497\nsamples = 40\nvalue = [19.402, 22.377]"] ;
77 -> 79 ;
80 [label="gini = 0.466\nsamples = 20\nvalue = [8.762, 14.918]"] ;
79 -> 80 ;
81 [label="gini = 0.485\nsamples = 20\nvalue = [10.64, 7.459]"] ;
79 -> 81 ;
82 [label="X[6] <= 0.748\ngini = 0.268\nsamples = 176\nvalue = [105.144, 19.891]"] ;
48 -> 82 ;
83 [label="X[1] <= 0.261\ngini = 0.215\nsamples = 147\nvalue = [88.872, 12.432]"] ;
82 -> 83 ;
84 [label="X[1] <= 0.16\ngini = 0.132\nsamples = 106\nvalue = [65.089, 4.973]"] ;
83 -> 84 ;
85 [label="X[0] <= 0.381\ngini = 0.272\nsamples = 43\nvalue = [25.66, 4.973]"] ;
84 -> 85 ;
86 [label="gini = 0.286\nsamples = 20\nvalue = [11.891, 2.486]"] ;
85 -> 86 ;
87 [label="gini = 0.259\nsamples = 23\nvalue = [13.769, 2.486]"] ;
85 -> 87 ;
88 [label="gini = 0.0\nsamples = 63\nvalue = [39.429, 0.0]"] ;
84 -> 88 ;
89 [label="X[6] <= 0.555\ngini = 0.363\nsamples = 41\nvalue = [23.783, 7.459]"] ;
83 -> 89 ;
90 [label="gini = 0.485\nsamples = 20\nvalue = [10.64, 7.459]"] ;
89 -> 90 ;
91 [label="gini = -0.0\nsamples = 21\nvalue = [13.143, 0.0]"] ;
89 -> 91 ;
92 [label="gini = 0.431\nsamples = 29\nvalue = [16.272, 7.459]"] ;
82 -> 92 ;
93 [label="X[1] <= 0.815\ngini = 0.498\nsamples = 612\nvalue = [298.535, 335.655]"] ;
45 -> 93 ;
94 [label="X[6] <= 0.422\ngini = 0.492\nsamples = 545\nvalue = [257.228, 333.169]"] ;
93 -> 94 ;
95 [label="X[0] <= 0.516\ngini = 0.482\nsamples = 471\nvalue = [215.296, 315.765]"] ;
94 -> 95 ;
96 [label="X[0] <= 0.229\ngini = 0.474\nsamples = 436\nvalue = [194.642, 310.792]"] ;
95 -> 96 ;
97 [label="X[4] <= 0.141\ngini = 0.489\nsamples = 127\nvalue = [66.967, 49.727]"] ;
96 -> 97 ;
98 [label="gini = 0.425\nsamples = 33\nvalue = [13.143, 29.836]"] ;
97 -> 98 ;
99 [label="X[4] <= 0.905\ngini = 0.394\nsamples = 94\nvalue = [53.824, 19.891]"] ;
97 -> 99 ;
100 [label="X[0] <= 0.044\ngini = 0.102\nsamples = 71\nvalue = [43.81, 2.486]"] ;
99 -> 100 ;
101 [label="gini = 0.0\nsamples = 51\nvalue = [31.919, 0.0]"] ;
100 -> 101 ;
102 [label="gini = 0.286\nsamples = 20\nvalue = [11.891, 2.486]"] ;
100 -> 102 ;
103 [label="gini = 0.464\nsamples = 23\nvalue = [10.014, 17.404]"] ;
99 -> 103 ;
104 [label="X[4] <= 0.958\ngini = 0.441\nsamples = 309\nvalue = [127.675, 261.065]"] ;
96 -> 104 ;
105 [label="X[0] <= 0.382\ngini = 0.413\nsamples = 263\nvalue = [102.015, 248.634]"] ;
104 -> 105 ;
106 [label="X[3] <= 0.809\ngini = 0.353\nsamples = 159\nvalue = [53.824, 181.503]"] ;
105 -> 106 ;
107 [label="X[6] <= -0.437\ngini = 0.313\nsamples = 139\nvalue = [42.558, 176.53]"] ;
106 -> 107 ;
108 [label="X[1] <= 0.483\ngini = 0.442\nsamples = 59\nvalue = [24.409, 49.727]"] ;
107 -> 108 ;
109 [label="gini = 0.496\nsamples = 26\nvalue = [12.517, 14.918]"] ;
108 -> 109 ;
110 [label="gini = 0.38\nsamples = 33\nvalue = [11.891, 34.809]"] ;
108 -> 110 ;
111 [label="X[4] <= 0.542\ngini = 0.219\nsamples = 80\nvalue = [18.15, 126.803]"] ;
107 -> 111 ;
112 [label="X[0] <= 0.282\ngini = 0.143\nsamples = 44\nvalue = [6.884, 82.049]"] ;
111 -> 112 ;
113 [label="gini = 0.21\nsamples = 20\nvalue = [4.381, 32.322]"] ;
112 -> 113 ;
114 [label="gini = 0.091\nsamples = 24\nvalue = [2.503, 49.727]"] ;
112 -> 114 ;
115 [label="gini = 0.321\nsamples = 36\nvalue = [11.265, 44.754]"] ;
111 -> 115 ;
116 [label="gini = 0.425\nsamples = 20\nvalue = [11.265, 4.973]"] ;
106 -> 116 ;
117 [label="X[0] <= 0.386\ngini = 0.487\nsamples = 104\nvalue = [48.191, 67.131]"] ;
105 -> 117 ;
118 [label="gini = 0.224\nsamples = 28\nvalue = [16.898, 2.486]"] ;
117 -> 118 ;
119 [label="X[4] <= 0.536\ngini = 0.44\nsamples = 76\nvalue = [31.293, 64.645]"] ;
117 -> 119 ;
120 [label="X[1] <= 0.567\ngini = 0.383\nsamples = 50\nvalue = [18.15, 52.213]"] ;
119 -> 120 ;
121 [label="gini = 0.232\nsamples = 21\nvalue = [5.007, 32.322]"] ;
120 -> 121 ;
122 [label="gini = 0.479\nsamples = 29\nvalue = [13.143, 19.891]"] ;
120 -> 122 ;
123 [label="gini = 0.5\nsamples = 26\nvalue = [13.143, 12.432]"] ;
119 -> 123 ;
124 [label="X[0] <= 0.355\ngini = 0.44\nsamples = 46\nvalue = [25.66, 12.432]"] ;
104 -> 124 ;
125 [label="gini = 0.49\nsamples = 25\nvalue = [13.143, 9.945]"] ;
124 -> 125 ;
126 [label="gini = 0.277\nsamples = 21\nvalue = [12.517, 2.486]"] ;
124 -> 126 ;
127 [label="gini = 0.313\nsamples = 35\nvalue = [20.653, 4.973]"] ;
95 -> 127 ;
128 [label="X[6] <= 0.688\ngini = 0.415\nsamples = 74\nvalue = [41.933, 17.404]"] ;
94 -> 128 ;
129 [label="gini = 0.483\nsamples = 34\nvalue = [18.15, 12.432]"] ;
128 -> 129 ;
130 [label="X[4] <= 0.534\ngini = 0.286\nsamples = 40\nvalue = [23.783, 4.973]"] ;
128 -> 130 ;
131 [label="gini = 0.286\nsamples = 20\nvalue = [11.891, 2.486]"] ;
130 -> 131 ;
132 [label="gini = 0.286\nsamples = 20\nvalue = [11.891, 2.486]"] ;
130 -> 132 ;
133 [label="X[0] <= 0.41\ngini = 0.107\nsamples = 67\nvalue = [41.307, 2.486]"] ;
93 -> 133 ;
134 [label="gini = 0.0\nsamples = 47\nvalue = [29.415, 0.0]"] ;
133 -> 134 ;
135 [label="gini = 0.286\nsamples = 20\nvalue = [11.891, 2.486]"] ;
133 -> 135 ;
136 [label="X[0] <= 0.539\ngini = 0.128\nsamples = 329\nvalue = [202.153, 14.918]"] ;
44 -> 136 ;
137 [label="X[5] <= 0.279\ngini = 0.094\nsamples = 308\nvalue = [190.261, 9.945]"] ;
136 -> 137 ;
138 [label="X[1] <= 0.641\ngini = 0.294\nsamples = 77\nvalue = [45.688, 9.945]"] ;
137 -> 138 ;
139 [label="gini = 0.475\nsamples = 29\nvalue = [15.646, 9.945]"] ;
138 -> 139 ;
140 [label="gini = 0.0\nsamples = 48\nvalue = [30.041, 0.0]"] ;
138 -> 140 ;
141 [label="gini = 0.0\nsamples = 231\nvalue = [144.574, 0.0]"] ;
137 -> 141 ;
142 [label="gini = 0.416\nsamples = 21\nvalue = [11.891, 4.973]"] ;
136 -> 142 ;
143 [label="X[4] <= 0.905\ngini = 0.474\nsamples = 398\nvalue = [177.744, 283.442]"] ;
43 -> 143 ;
144 [label="X[1] <= 0.679\ngini = 0.44\nsamples = 328\nvalue = [135.186, 278.47]"] ;
143 -> 144 ;
145 [label="X[4] <= 0.279\ngini = 0.387\nsamples = 258\nvalue = [94.505, 266.038]"] ;
144 -> 145 ;
146 [label="X[6] <= -0.688\ngini = 0.479\nsamples = 70\nvalue = [37.552, 24.863]"] ;
145 -> 146 ;
147 [label="gini = 0.481\nsamples = 33\nvalue = [15.021, 22.377]"] ;
146 -> 147 ;
148 [label="gini = 0.179\nsamples = 37\nvalue = [22.531, 2.486]"] ;
146 -> 148 ;
149 [label="X[6] <= -0.489\ngini = 0.309\nsamples = 188\nvalue = [56.953, 241.175]"] ;
145 -> 149 ;
150 [label="X[3] <= 0.211\ngini = 0.457\nsamples = 54\nvalue = [23.157, 42.268]"] ;
149 -> 150 ;
151 [label="gini = 0.283\nsamples = 20\nvalue = [5.633, 27.35]"] ;
150 -> 151 ;
152 [label="gini = 0.497\nsamples = 34\nvalue = [17.524, 14.918]"] ;
150 -> 152 ;
153 [label="X[4] <= 0.485\ngini = 0.248\nsamples = 134\nvalue = [33.796, 198.907]"] ;
149 -> 153 ;
154 [label="gini = 0.436\nsamples = 23\nvalue = [9.388, 19.891]"] ;
153 -> 154 ;
155 [label="X[5] <= 0.211\ngini = 0.211\nsamples = 111\nvalue = [24.409, 179.016]"] ;
153 -> 155 ;
156 [label="X[3] <= 0.374\ngini = 0.274\nsamples = 89\nvalue = [24.409, 124.317]"] ;
155 -> 156 ;
157 [label="X[4] <= 0.742\ngini = 0.344\nsamples = 68\nvalue = [22.531, 79.563]"] ;
156 -> 157 ;
158 [label="gini = 0.479\nsamples = 21\nvalue = [11.265, 7.459]"] ;
157 -> 158 ;
159 [label="X[0] <= 0.573\ngini = 0.234\nsamples = 47\nvalue = [11.265, 72.104]"] ;
157 -> 159 ;
160 [label="gini = 0.155\nsamples = 26\nvalue = [4.381, 47.24]"] ;
159 -> 160 ;
161 [label="gini = 0.34\nsamples = 21\nvalue = [6.884, 24.863]"] ;
159 -> 161 ;
162 [label="gini = 0.077\nsamples = 21\nvalue = [1.878, 44.754]"] ;
156 -> 162 ;
163 [label="gini = 0.0\nsamples = 22\nvalue = [0.0, 54.699]"] ;
155 -> 163 ;
164 [label="X[1] <= 0.774\ngini = 0.359\nsamples = 70\nvalue = [40.681, 12.432]"] ;
144 -> 164 ;
165 [label="gini = 0.488\nsamples = 32\nvalue = [16.898, 12.432]"] ;
164 -> 165 ;
166 [label="gini = 0.0\nsamples = 38\nvalue = [23.783, 0.0]"] ;
164 -> 166 ;
167 [label="X[0] <= 0.571\ngini = 0.187\nsamples = 70\nvalue = [42.558, 4.973]"] ;
143 -> 167 ;
168 [label="gini = 0.407\nsamples = 22\nvalue = [12.517, 4.973]"] ;
167 -> 168 ;
169 [label="gini = 0.0\nsamples = 48\nvalue = [30.041, 0.0]"] ;
167 -> 169 ;
170 [label="X[6] <= -0.407\ngini = 0.418\nsamples = 7291\nvalue = [2860.805, 6762.837]"] ;
0 -> 170 [labeldistance=2.5, labelangle=-45, headlabel="False"] ;
171 [label="X[1] <= 0.095\ngini = 0.283\nsamples = 3404\nvalue = [958.191, 4656.909]"] ;
170 -> 171 ;
172 [label="X[6] <= -1.636\ngini = 0.491\nsamples = 846\nvalue = [398.673, 519.644]"] ;
171 -> 172 ;
173 [label="X[2] <= 58.5\ngini = 0.172\nsamples = 183\nvalue = [33.796, 320.737]"] ;
172 -> 173 ;
174 [label="X[6] <= -1.836\ngini = 0.455\nsamples = 47\nvalue = [20.028, 37.295]"] ;
173 -> 174 ;
175 [label="gini = 0.407\nsamples = 22\nvalue = [12.517, 4.973]"] ;
174 -> 175 ;
176 [label="gini = 0.306\nsamples = 25\nvalue = [7.51, 32.322]"] ;
174 -> 176 ;
177 [label="X[3] <= 0.056\ngini = 0.088\nsamples = 136\nvalue = [13.769, 283.442]"] ;
173 -> 177 ;
178 [label="X[6] <= -2.236\ngini = 0.13\nsamples = 96\nvalue = [13.769, 183.989]"] ;
177 -> 178 ;
179 [label="gini = 0.04\nsamples = 39\nvalue = [1.878, 89.508]"] ;
178 -> 179 ;
180 [label="X[0] <= 1.02\ngini = 0.199\nsamples = 57\nvalue = [11.891, 94.481]"] ;
178 -> 180 ;
181 [label="gini = 0.104\nsamples = 32\nvalue = [3.755, 64.645]"] ;
180 -> 181 ;
182 [label="gini = 0.337\nsamples = 25\nvalue = [8.136, 29.836]"] ;
180 -> 182 ;
183 [label="gini = 0.0\nsamples = 40\nvalue = [0.0, 99.453]"] ;
177 -> 183 ;
184 [label="X[0] <= 0.944\ngini = 0.457\nsamples = 663\nvalue = [364.876, 198.907]"] ;
172 -> 184 ;
185 [label="X[0] <= 0.452\ngini = 0.437\nsamples = 637\nvalue = [356.114, 169.071]"] ;
184 -> 185 ;
186 [label="gini = 0.0\nsamples = 47\nvalue = [29.415, 0.0]"] ;
185 -> 186 ;
187 [label="X[1] <= 0.036\ngini = 0.449\nsamples = 590\nvalue = [326.699, 169.071]"] ;
185 -> 187 ;
188 [label="X[4] <= 0.045\ngini = 0.462\nsamples = 535\nvalue = [292.902, 166.585]"] ;
187 -> 188 ;
189 [label="X[0] <= 0.783\ngini = 0.272\nsamples = 86\nvalue = [51.321, 9.945]"] ;
188 -> 189 ;
190 [label="gini = 0.0\nsamples = 66\nvalue = [41.307, 0.0]"] ;
189 -> 190 ;
191 [label="gini = 0.5\nsamples = 20\nvalue = [10.014, 9.945]"] ;
189 -> 191 ;
192 [label="X[3] <= 0.162\ngini = 0.477\nsamples = 449\nvalue = [241.582, 156.639]"] ;
188 -> 192 ;
193 [label="X[2] <= 76.5\ngini = 0.454\nsamples = 413\nvalue = [227.813, 121.831]"] ;
192 -> 193 ;
194 [label="X[2] <= 31.5\ngini = 0.468\nsamples = 375\nvalue = [204.03, 121.831]"] ;
193 -> 194 ;
195 [label="X[2] <= 27.5\ngini = 0.399\nsamples = 183\nvalue = [104.519, 39.781]"] ;
194 -> 195 ;
196 [label="X[2] <= 23.5\ngini = 0.426\nsamples = 159\nvalue = [89.498, 39.781]"] ;
195 -> 196 ;
197 [label="X[2] <= 21.5\ngini = 0.394\nsamples = 129\nvalue = [73.851, 27.35]"] ;
196 -> 197 ;
198 [label="X[6] <= -0.748\ngini = 0.433\nsamples = 105\nvalue = [58.831, 27.35]"] ;
197 -> 198 ;
199 [label="X[6] <= -1.207\ngini = 0.371\nsamples = 79\nvalue = [45.688, 14.918]"] ;
198 -> 199 ;
200 [label="X[0] <= 0.572\ngini = 0.437\nsamples = 56\nvalue = [31.293, 14.918]"] ;
199 -> 200 ;
201 [label="gini = 0.487\nsamples = 26\nvalue = [13.769, 9.945]"] ;
200 -> 201 ;
202 [label="gini = 0.344\nsamples = 30\nvalue = [17.524, 4.973]"] ;
200 -> 202 ;
203 [label="gini = 0.0\nsamples = 23\nvalue = [14.395, 0.0]"] ;
199 -> 203 ;
204 [label="gini = 0.5\nsamples = 26\nvalue = [13.143, 12.432]"] ;
198 -> 204 ;
205 [label="gini = 0.0\nsamples = 24\nvalue = [15.021, 0.0]"] ;
197 -> 205 ;
206 [label="gini = 0.493\nsamples = 30\nvalue = [15.646, 12.432]"] ;
196 -> 206 ;
207 [label="gini = -0.0\nsamples = 24\nvalue = [15.021, 0.0]"] ;
195 -> 207 ;
208 [label="X[0] <= 0.822\ngini = 0.495\nsamples = 192\nvalue = [99.512, 82.049]"] ;
194 -> 208 ;
209 [label="X[0] <= 0.755\ngini = 0.5\nsamples = 129\nvalue = [63.838, 67.131]"] ;
208 -> 209 ;
210 [label="X[2] <= 40.5\ngini = 0.492\nsamples = 86\nvalue = [45.062, 34.809]"] ;
209 -> 210 ;
211 [label="gini = 0.487\nsamples = 27\nvalue = [12.517, 17.404]"] ;
210 -> 211 ;
212 [label="X[6] <= -1.177\ngini = 0.454\nsamples = 59\nvalue = [32.545, 17.404]"] ;
210 -> 212 ;
213 [label="gini = 0.5\nsamples = 31\nvalue = [15.646, 14.918]"] ;
212 -> 213 ;
214 [label="gini = 0.224\nsamples = 28\nvalue = [16.898, 2.486]"] ;
212 -> 214 ;
215 [label="X[2] <= 43.5\ngini = 0.465\nsamples = 43\nvalue = [18.776, 32.322]"] ;
209 -> 215 ;
216 [label="gini = 0.494\nsamples = 21\nvalue = [10.014, 12.432]"] ;
215 -> 216 ;
217 [label="gini = 0.425\nsamples = 22\nvalue = [8.762, 19.891]"] ;
215 -> 217 ;
218 [label="X[0] <= 0.856\ngini = 0.416\nsamples = 63\nvalue = [35.674, 14.918]"] ;
208 -> 218 ;
219 [label="gini = 0.296\nsamples = 38\nvalue = [22.531, 4.973]"] ;
218 -> 219 ;
220 [label="gini = 0.49\nsamples = 25\nvalue = [13.143, 9.945]"] ;
218 -> 220 ;
221 [label="gini = 0.0\nsamples = 38\nvalue = [23.783, 0.0]"] ;
193 -> 221 ;
222 [label="gini = 0.406\nsamples = 36\nvalue = [13.769, 34.809]"] ;
192 -> 222 ;
223 [label="X[2] <= 55.5\ngini = 0.128\nsamples = 55\nvalue = [33.796, 2.486]"] ;
187 -> 223 ;
224 [label="gini = 0.0\nsamples = 35\nvalue = [21.905, 0.0]"] ;
223 -> 224 ;
225 [label="gini = 0.286\nsamples = 20\nvalue = [11.891, 2.486]"] ;
223 -> 225 ;
226 [label="gini = 0.351\nsamples = 26\nvalue = [8.762, 29.836]"] ;
184 -> 226 ;
227 [label="X[5] <= 0.519\ngini = 0.21\nsamples = 2558\nvalue = [559.519, 4137.265]"] ;
171 -> 227 ;
228 [label="X[3] <= 0.106\ngini = 0.19\nsamples = 2423\nvalue = [486.919, 4090.024]"] ;
227 -> 228 ;
229 [label="X[2] <= 48.5\ngini = 0.358\nsamples = 603\nvalue = [206.534, 678.77]"] ;
228 -> 229 ;
230 [label="X[2] <= 46.5\ngini = 0.476\nsamples = 234\nvalue = [105.144, 164.098]"] ;
229 -> 230 ;
231 [label="X[4] <= 0.905\ngini = 0.46\nsamples = 213\nvalue = [92.001, 164.098]"] ;
230 -> 231 ;
232 [label="X[1] <= 0.578\ngini = 0.336\nsamples = 77\nvalue = [25.034, 91.994]"] ;
231 -> 232 ;
233 [label="X[0] <= 0.705\ngini = 0.215\nsamples = 56\nvalue = [12.517, 89.508]"] ;
232 -> 233 ;
234 [label="gini = 0.097\nsamples = 34\nvalue = [3.755, 69.617]"] ;
233 -> 234 ;
235 [label="gini = 0.425\nsamples = 22\nvalue = [8.762, 19.891]"] ;
233 -> 235 ;
236 [label="gini = 0.277\nsamples = 21\nvalue = [12.517, 2.486]"] ;
232 -> 236 ;
237 [label="X[6] <= -1.251\ngini = 0.499\nsamples = 136\nvalue = [66.967, 72.104]"] ;
231 -> 237 ;
238 [label="gini = 0.392\nsamples = 27\nvalue = [10.014, 27.35]"] ;
237 -> 238 ;
239 [label="X[2] <= 22.5\ngini = 0.493\nsamples = 109\nvalue = [56.953, 44.754]"] ;
237 -> 239 ;
240 [label="X[6] <= -0.962\ngini = 0.469\nsamples = 44\nvalue = [19.402, 32.322]"] ;
239 -> 240 ;
241 [label="gini = 0.425\nsamples = 20\nvalue = [11.265, 4.973]"] ;
240 -> 241 ;
242 [label="gini = 0.353\nsamples = 24\nvalue = [8.136, 27.35]"] ;
240 -> 242 ;
243 [label="X[0] <= 0.735\ngini = 0.374\nsamples = 65\nvalue = [37.552, 12.432]"] ;
239 -> 243 ;
244 [label="gini = 0.0\nsamples = 33\nvalue = [20.653, 0.0]"] ;
243 -> 244 ;
245 [label="gini = 0.488\nsamples = 32\nvalue = [16.898, 12.432]"] ;
243 -> 245 ;
246 [label="gini = -0.0\nsamples = 21\nvalue = [13.143, 0.0]"] ;
230 -> 246 ;
247 [label="X[0] <= 1.278\ngini = 0.275\nsamples = 369\nvalue = [101.389, 514.672]"] ;
229 -> 247 ;
248 [label="X[1] <= 0.809\ngini = 0.321\nsamples = 312\nvalue = [97.634, 387.869]"] ;
247 -> 248 ;
249 [label="X[4] <= 0.626\ngini = 0.277\nsamples = 267\nvalue = [73.851, 370.464]"] ;
248 -> 249 ;
250 [label="gini = 0.428\nsamples = 39\nvalue = [15.646, 34.809]"] ;
249 -> 250 ;
251 [label="X[1] <= 0.24\ngini = 0.252\nsamples = 228\nvalue = [58.205, 335.655]"] ;
249 -> 251 ;
252 [label="X[4] <= 0.964\ngini = 0.35\nsamples = 82\nvalue = [27.538, 94.481]"] ;
251 -> 252 ;
253 [label="gini = 0.487\nsamples = 27\nvalue = [12.517, 17.404]"] ;
252 -> 253 ;
254 [label="X[0] <= 0.767\ngini = 0.273\nsamples = 55\nvalue = [15.021, 77.076]"] ;
252 -> 254 ;
255 [label="gini = 0.49\nsamples = 20\nvalue = [9.388, 12.432]"] ;
254 -> 255 ;
256 [label="gini = 0.147\nsamples = 35\nvalue = [5.633, 64.645]"] ;
254 -> 256 ;
257 [label="X[6] <= -1.976\ngini = 0.2\nsamples = 146\nvalue = [30.667, 241.175]"] ;
251 -> 257 ;
258 [label="gini = 0.048\nsamples = 22\nvalue = [1.252, 49.727]"] ;
257 -> 258 ;
259 [label="X[6] <= -1.473\ngini = 0.231\nsamples = 124\nvalue = [29.415, 191.448]"] ;
257 -> 259 ;
260 [label="gini = 0.436\nsamples = 23\nvalue = [9.388, 19.891]"] ;
259 -> 260 ;
261 [label="X[4] <= 0.913\ngini = 0.187\nsamples = 101\nvalue = [20.028, 171.557]"] ;
259 -> 261 ;
262 [label="X[6] <= -0.992\ngini = 0.118\nsamples = 57\nvalue = [7.51, 111.885]"] ;
261 -> 262 ;
263 [label="gini = 0.051\nsamples = 31\nvalue = [1.878, 69.617]"] ;
262 -> 263 ;
264 [label="gini = 0.208\nsamples = 26\nvalue = [5.633, 42.268]"] ;
262 -> 264 ;
265 [label="X[2] <= 80.0\ngini = 0.287\nsamples = 44\nvalue = [12.517, 59.672]"] ;
261 -> 265 ;
266 [label="gini = 0.455\nsamples = 22\nvalue = [9.388, 17.404]"] ;
265 -> 266 ;
267 [label="gini = 0.128\nsamples = 22\nvalue = [3.129, 42.268]"] ;
265 -> 267 ;
268 [label="X[0] <= 0.849\ngini = 0.488\nsamples = 45\nvalue = [23.783, 17.404]"] ;
248 -> 268 ;
269 [label="gini = -0.0\nsamples = 25\nvalue = [15.646, 0.0]"] ;
268 -> 269 ;
270 [label="gini = 0.434\nsamples = 20\nvalue = [8.136, 17.404]"] ;
268 -> 270 ;
271 [label="X[1] <= 0.528\ngini = 0.056\nsamples = 57\nvalue = [3.755, 126.803]"] ;
247 -> 271 ;
272 [label="gini = 0.136\nsamples = 25\nvalue = [3.755, 47.24]"] ;
271 -> 272 ;
273 [label="gini = 0.0\nsamples = 32\nvalue = [0.0, 79.563]"] ;
271 -> 273 ;
274 [label="X[0] <= 1.089\ngini = 0.14\nsamples = 1820\nvalue = [280.385, 3411.254]"] ;
228 -> 274 ;
275 [label="X[3] <= 0.971\ngini = 0.198\nsamples = 1211\nvalue = [252.222, 2008.96]"] ;
274 -> 275 ;
276 [label="X[5] <= 0.16\ngini = 0.179\nsamples = 1097\nvalue = [209.037, 1897.075]"] ;
275 -> 276 ;
277 [label="X[0] <= 0.589\ngini = 0.158\nsamples = 982\nvalue = [168.356, 1772.758]"] ;
276 -> 277 ;
278 [label="X[4] <= 0.826\ngini = 0.292\nsamples = 130\nvalue = [37.552, 174.044]"] ;
277 -> 278 ;
279 [label="X[6] <= -0.807\ngini = 0.228\nsamples = 104\nvalue = [24.409, 161.612]"] ;
278 -> 279 ;
280 [label="X[3] <= 0.433\ngini = 0.38\nsamples = 52\nvalue = [18.776, 54.699]"] ;
279 -> 280 ;
281 [label="gini = 0.217\nsamples = 25\nvalue = [5.633, 39.781]"] ;
280 -> 281 ;
282 [label="gini = 0.498\nsamples = 27\nvalue = [13.143, 14.918]"] ;
280 -> 282 ;
283 [label="X[2] <= 27.0\ngini = 0.095\nsamples = 52\nvalue = [5.633, 106.912]"] ;
279 -> 283 ;
284 [label="gini = 0.025\nsamples = 21\nvalue = [0.626, 49.727]"] ;
283 -> 284 ;
285 [label="gini = 0.148\nsamples = 31\nvalue = [5.007, 57.186]"] ;
283 -> 285 ;
286 [label="gini = 0.5\nsamples = 26\nvalue = [13.143, 12.432]"] ;
278 -> 286 ;
287 [label="X[3] <= 0.606\ngini = 0.14\nsamples = 852\nvalue = [130.805, 1598.715]"] ;
277 -> 287 ;
288 [label="X[1] <= 0.191\ngini = 0.101\nsamples = 571\nvalue = [65.089, 1161.119]"] ;
287 -> 288 ;
289 [label="X[6] <= -0.748\ngini = 0.26\nsamples = 74\nvalue = [19.402, 106.912]"] ;
288 -> 289 ;
290 [label="X[0] <= 0.865\ngini = 0.156\nsamples = 48\nvalue = [8.136, 87.022]"] ;
289 -> 290 ;
291 [label="gini = 0.276\nsamples = 25\nvalue = [6.884, 34.809]"] ;
290 -> 291 ;
292 [label="gini = 0.046\nsamples = 23\nvalue = [1.252, 52.213]"] ;
290 -> 292 ;
293 [label="gini = 0.462\nsamples = 26\nvalue = [11.265, 19.891]"] ;
289 -> 293 ;
294 [label="X[1] <= 0.392\ngini = 0.08\nsamples = 497\nvalue = [45.688, 1054.207]"] ;
288 -> 294 ;
295 [label="X[0] <= 0.678\ngini = 0.128\nsamples = 190\nvalue = [26.912, 365.492]"] ;
294 -> 295 ;
296 [label="gini = 0.299\nsamples = 34\nvalue = [10.014, 44.754]"] ;
295 -> 296 ;
297 [label="X[1] <= 0.293\ngini = 0.095\nsamples = 156\nvalue = [16.898, 320.737]"] ;
295 -> 297 ;
298 [label="X[6] <= -1.133\ngini = 0.036\nsamples = 72\nvalue = [3.129, 166.585]"] ;
297 -> 298 ;
299 [label="X[0] <= 0.885\ngini = 0.011\nsamples = 47\nvalue = [0.626, 114.372]"] ;
298 -> 299 ;
300 [label="gini = 0.0\nsamples = 27\nvalue = [0.0, 67.131]"] ;
299 -> 300 ;
301 [label="gini = 0.026\nsamples = 20\nvalue = [0.626, 47.24]"] ;
299 -> 301 ;
302 [label="gini = 0.087\nsamples = 25\nvalue = [2.503, 52.213]"] ;
298 -> 302 ;
303 [label="X[0] <= 0.908\ngini = 0.151\nsamples = 84\nvalue = [13.769, 154.153]"] ;
297 -> 303 ;
304 [label="X[1] <= 0.345\ngini = 0.111\nsamples = 55\nvalue = [6.884, 109.399]"] ;
303 -> 304 ;
305 [label="gini = 0.048\nsamples = 33\nvalue = [1.878, 74.59]"] ;
304 -> 305 ;
306 [label="gini = 0.22\nsamples = 22\nvalue = [5.007, 34.809]"] ;
304 -> 306 ;
307 [label="gini = 0.231\nsamples = 29\nvalue = [6.884, 44.754]"] ;
303 -> 307 ;
308 [label="X[2] <= 65.5\ngini = 0.052\nsamples = 307\nvalue = [18.776, 688.715]"] ;
294 -> 308 ;
309 [label="X[4] <= 0.536\ngini = 0.088\nsamples = 137\nvalue = [13.769, 285.929]"] ;
308 -> 309 ;
310 [label="X[1] <= 0.542\ngini = 0.143\nsamples = 44\nvalue = [6.884, 82.049]"] ;
309 -> 310 ;
311 [label="gini = 0.258\nsamples = 24\nvalue = [6.259, 34.809]"] ;
310 -> 311 ;
312 [label="gini = 0.026\nsamples = 20\nvalue = [0.626, 47.24]"] ;
310 -> 312 ;
313 [label="X[6] <= -0.74\ngini = 0.063\nsamples = 93\nvalue = [6.884, 203.88]"] ;
309 -> 313 ;
314 [label="X[2] <= 33.5\ngini = 0.037\nsamples = 71\nvalue = [3.129, 164.098]"] ;
313 -> 314 ;
315 [label="gini = 0.077\nsamples = 35\nvalue = [3.129, 74.59]"] ;
314 -> 315 ;
316 [label="gini = 0.0\nsamples = 36\nvalue = [0.0, 89.508]"] ;
314 -> 316 ;
317 [label="gini = 0.158\nsamples = 22\nvalue = [3.755, 39.781]"] ;
313 -> 317 ;
318 [label="X[0] <= 0.659\ngini = 0.024\nsamples = 170\nvalue = [5.007, 402.787]"] ;
308 -> 318 ;
319 [label="gini = 0.081\nsamples = 20\nvalue = [1.878, 42.268]"] ;
318 -> 319 ;
320 [label="X[6] <= -1.207\ngini = 0.017\nsamples = 150\nvalue = [3.129, 360.519]"] ;
318 -> 320 ;
321 [label="gini = 0.0\nsamples = 80\nvalue = [0.0, 198.907]"] ;
320 -> 321 ;
322 [label="X[6] <= -0.725\ngini = 0.037\nsamples = 70\nvalue = [3.129, 161.612]"] ;
320 -> 322 ;
323 [label="X[4] <= 0.517\ngini = 0.064\nsamples = 42\nvalue = [3.129, 91.994]"] ;
322 -> 323 ;
324 [label="gini = 0.026\nsamples = 20\nvalue = [0.626, 47.24]"] ;
323 -> 324 ;
325 [label="gini = 0.1\nsamples = 22\nvalue = [2.503, 44.754]"] ;
323 -> 325 ;
326 [label="gini = 0.0\nsamples = 28\nvalue = [0.0, 69.617]"] ;
322 -> 326 ;
327 [label="X[4] <= 0.129\ngini = 0.227\nsamples = 281\nvalue = [65.715, 437.595]"] ;
287 -> 327 ;
328 [label="X[2] <= 74.0\ngini = 0.08\nsamples = 61\nvalue = [5.633, 129.29]"] ;
327 -> 328 ;
329 [label="X[6] <= -1.221\ngini = 0.038\nsamples = 41\nvalue = [1.878, 94.481]"] ;
328 -> 329 ;
330 [label="gini = 0.053\nsamples = 20\nvalue = [1.252, 44.754]"] ;
329 -> 330 ;
331 [label="gini = 0.025\nsamples = 21\nvalue = [0.626, 49.727]"] ;
329 -> 331 ;
332 [label="gini = 0.176\nsamples = 20\nvalue = [3.755, 34.809]"] ;
328 -> 332 ;
333 [label="X[2] <= 95.0\ngini = 0.273\nsamples = 220\nvalue = [60.083, 308.306]"] ;
327 -> 333 ;
334 [label="X[1] <= 0.563\ngini = 0.324\nsamples = 165\nvalue = [51.946, 203.88]"] ;
333 -> 334 ;
335 [label="X[3] <= 0.696\ngini = 0.209\nsamples = 69\nvalue = [15.021, 111.885]"] ;
334 -> 335 ;
336 [label="gini = 0.021\nsamples = 25\nvalue = [0.626, 59.672]"] ;
335 -> 336 ;
337 [label="X[0] <= 0.791\ngini = 0.339\nsamples = 44\nvalue = [14.395, 52.213]"] ;
335 -> 337 ;
338 [label="gini = 0.199\nsamples = 24\nvalue = [5.007, 39.781]"] ;
337 -> 338 ;
339 [label="gini = 0.49\nsamples = 20\nvalue = [9.388, 12.432]"] ;
337 -> 339 ;
340 [label="X[4] <= 0.314\ngini = 0.409\nsamples = 96\nvalue = [36.926, 91.994]"] ;
334 -> 340 ;
341 [label="X[2] <= 47.5\ngini = 0.359\nsamples = 71\nvalue = [24.409, 79.563]"] ;
340 -> 341 ;
342 [label="gini = 0.231\nsamples = 29\nvalue = [6.884, 44.754]"] ;
341 -> 342 ;
343 [label="X[6] <= -1.207\ngini = 0.445\nsamples = 42\nvalue = [17.524, 34.809]"] ;
341 -> 343 ;
344 [label="gini = 0.391\nsamples = 22\nvalue = [8.136, 22.377]"] ;
343 -> 344 ;
345 [label="gini = 0.49\nsamples = 20\nvalue = [9.388, 12.432]"] ;
343 -> 345 ;
346 [label="gini = 0.5\nsamples = 25\nvalue = [12.517, 12.432]"] ;
340 -> 346 ;
347 [label="X[1] <= 0.707\ngini = 0.134\nsamples = 55\nvalue = [8.136, 104.426]"] ;
333 -> 347 ;
348 [label="gini = 0.055\nsamples = 29\nvalue = [1.878, 64.645]"] ;
347 -> 348 ;
349 [label="gini = 0.235\nsamples = 26\nvalue = [6.259, 39.781]"] ;
347 -> 349 ;
350 [label="X[1] <= 0.382\ngini = 0.372\nsamples = 115\nvalue = [40.681, 124.317]"] ;
276 -> 350 ;
351 [label="gini = 0.425\nsamples = 30\nvalue = [16.898, 7.459]"] ;
350 -> 351 ;
352 [label="X[2] <= 72.5\ngini = 0.281\nsamples = 85\nvalue = [23.783, 116.858]"] ;
350 -> 352 ;
353 [label="X[6] <= -0.725\ngini = 0.455\nsamples = 44\nvalue = [18.776, 34.809]"] ;
352 -> 353 ;
354 [label="gini = 0.425\nsamples = 20\nvalue = [11.265, 4.973]"] ;
353 -> 354 ;
355 [label="gini = 0.321\nsamples = 24\nvalue = [7.51, 29.836]"] ;
353 -> 355 ;
356 [label="X[1] <= 0.655\ngini = 0.108\nsamples = 41\nvalue = [5.007, 82.049]"] ;
352 -> 356 ;
357 [label="gini = 0.21\nsamples = 20\nvalue = [4.381, 32.322]"] ;
356 -> 357 ;
358 [label="gini = 0.025\nsamples = 21\nvalue = [0.626, 49.727]"] ;
356 -> 358 ;
359 [label="X[0] <= 0.638\ngini = 0.402\nsamples = 114\nvalue = [43.184, 111.885]"] ;
275 -> 359 ;
360 [label="gini = 0.268\nsamples = 22\nvalue = [13.143, 2.486]"] ;
359 -> 360 ;
361 [label="X[1] <= 0.247\ngini = 0.338\nsamples = 92\nvalue = [30.041, 109.399]"] ;
359 -> 361 ;
362 [label="gini = 0.493\nsamples = 24\nvalue = [12.517, 9.945]"] ;
361 -> 362 ;
363 [label="X[1] <= 0.652\ngini = 0.255\nsamples = 68\nvalue = [17.524, 99.453]"] ;
361 -> 363 ;
364 [label="X[1] <= 0.348\ngini = 0.297\nsamples = 47\nvalue = [13.769, 62.158]"] ;
363 -> 364 ;
365 [label="gini = 0.176\nsamples = 20\nvalue = [3.755, 34.809]"] ;
364 -> 365 ;
366 [label="gini = 0.392\nsamples = 27\nvalue = [10.014, 27.35]"] ;
364 -> 366 ;
367 [label="gini = 0.166\nsamples = 21\nvalue = [3.755, 37.295]"] ;
363 -> 367 ;
368 [label="X[6] <= -1.177\ngini = 0.039\nsamples = 609\nvalue = [28.164, 1402.294]"] ;
274 -> 368 ;
369 [label="X[5] <= 0.146\ngini = 0.03\nsamples = 572\nvalue = [20.653, 1340.136]"] ;
368 -> 369 ;
370 [label="X[4] <= 0.739\ngini = 0.021\nsamples = 523\nvalue = [13.143, 1248.141]"] ;
369 -> 370 ;
371 [label="X[0] <= 1.136\ngini = 0.011\nsamples = 469\nvalue = [6.259, 1141.229]"] ;
370 -> 371 ;
372 [label="X[1] <= 0.551\ngini = 0.065\nsamples = 41\nvalue = [3.129, 89.508]"] ;
371 -> 372 ;
373 [label="gini = 0.143\nsamples = 20\nvalue = [3.129, 37.295]"] ;
372 -> 373 ;
374 [label="gini = 0.0\nsamples = 21\nvalue = [0.0, 52.213]"] ;
372 -> 374 ;
375 [label="X[1] <= 0.86\ngini = 0.006\nsamples = 428\nvalue = [3.129, 1051.721]"] ;
371 -> 375 ;
376 [label="gini = -0.0\nsamples = 359\nvalue = [0.0, 892.595]"] ;
375 -> 376 ;
377 [label="X[1] <= 0.905\ngini = 0.038\nsamples = 69\nvalue = [3.129, 159.126]"] ;
375 -> 377 ;
378 [label="gini = 0.143\nsamples = 20\nvalue = [3.129, 37.295]"] ;
377 -> 378 ;
379 [label="gini = 0.0\nsamples = 49\nvalue = [0.0, 121.831]"] ;
377 -> 379 ;
380 [label="X[4] <= 0.774\ngini = 0.114\nsamples = 54\nvalue = [6.884, 106.912]"] ;
370 -> 380 ;
381 [label="gini = 0.303\nsamples = 21\nvalue = [6.259, 27.35]"] ;
380 -> 381 ;
382 [label="gini = 0.015\nsamples = 33\nvalue = [0.626, 79.563]"] ;
380 -> 382 ;
383 [label="X[3] <= 0.515\ngini = 0.14\nsamples = 49\nvalue = [7.51, 91.994]"] ;
369 -> 383 ;
384 [label="gini = -0.0\nsamples = 28\nvalue = [0.0, 69.617]"] ;
383 -> 384 ;
385 [label="gini = 0.376\nsamples = 21\nvalue = [7.51, 22.377]"] ;
383 -> 385 ;
386 [label="gini = 0.192\nsamples = 37\nvalue = [7.51, 62.158]"] ;
368 -> 386 ;
387 [label="X[3] <= 0.038\ngini = 0.478\nsamples = 135\nvalue = [72.6, 47.24]"] ;
227 -> 387 ;
388 [label="X[2] <= 87.5\ngini = 0.469\nsamples = 61\nvalue = [26.912, 44.754]"] ;
387 -> 388 ;
389 [label="gini = 0.487\nsamples = 39\nvalue = [20.653, 14.918]"] ;
388 -> 389 ;
390 [label="gini = 0.287\nsamples = 22\nvalue = [6.259, 29.836]"] ;
388 -> 390 ;
391 [label="X[4] <= 0.226\ngini = 0.098\nsamples = 74\nvalue = [45.688, 2.486]"] ;
387 -> 391 ;
392 [label="gini = 0.0\nsamples = 54\nvalue = [33.796, 0.0]"] ;
391 -> 392 ;
393 [label="gini = 0.286\nsamples = 20\nvalue = [11.891, 2.486]"] ;
391 -> 393 ;
394 [label="X[1] <= 0.293\ngini = 0.499\nsamples = 3887\nvalue = [1902.614, 2105.927]"] ;
170 -> 394 ;
395 [label="X[4] <= 0.08\ngini = 0.46\nsamples = 1536\nvalue = [842.407, 472.404]"] ;
394 -> 395 ;
396 [label="X[6] <= 0.067\ngini = 0.037\nsamples = 209\nvalue = [130.179, 2.486]"] ;
395 -> 396 ;
397 [label="X[0] <= 0.766\ngini = 0.124\nsamples = 57\nvalue = [35.048, 2.486]"] ;
396 -> 397 ;
398 [label="gini = 0.0\nsamples = 37\nvalue = [23.157, 0.0]"] ;
397 -> 398 ;
399 [label="gini = 0.286\nsamples = 20\nvalue = [11.891, 2.486]"] ;
397 -> 399 ;
400 [label="gini = -0.0\nsamples = 152\nvalue = [95.131, 0.0]"] ;
396 -> 400 ;
401 [label="X[1] <= 0.106\ngini = 0.479\nsamples = 1327\nvalue = [712.228, 469.918]"] ;
395 -> 401 ;
402 [label="X[6] <= 1.251\ngini = 0.434\nsamples = 686\nvalue = [384.278, 179.016]"] ;
401 -> 402 ;
403 [label="X[2] <= 25.5\ngini = 0.469\nsamples = 473\nvalue = [257.228, 154.153]"] ;
402 -> 403 ;
404 [label="X[2] <= 18.5\ngini = 0.294\nsamples = 231\nvalue = [137.063, 29.836]"] ;
403 -> 404 ;
405 [label="X[6] <= 0.703\ngini = 0.469\nsamples = 76\nvalue = [41.307, 24.863]"] ;
404 -> 405 ;
406 [label="gini = 0.445\nsamples = 24\nvalue = [10.014, 19.891]"] ;
405 -> 406 ;
407 [label="X[6] <= 0.844\ngini = 0.237\nsamples = 52\nvalue = [31.293, 4.973]"] ;
405 -> 407 ;
408 [label="gini = 0.425\nsamples = 20\nvalue = [11.265, 4.973]"] ;
407 -> 408 ;
409 [label="gini = 0.0\nsamples = 32\nvalue = [20.028, 0.0]"] ;
407 -> 409 ;
410 [label="X[3] <= 0.087\ngini = 0.094\nsamples = 155\nvalue = [95.757, 4.973]"] ;
404 -> 410 ;
411 [label="gini = 0.0\nsamples = 134\nvalue = [83.865, 0.0]"] ;
410 -> 411 ;
412 [label="gini = 0.416\nsamples = 21\nvalue = [11.891, 4.973]"] ;
410 -> 412 ;
413 [label="X[2] <= 34.5\ngini = 0.5\nsamples = 242\nvalue = [120.165, 124.317]"] ;
403 -> 413 ;
414 [label="X[6] <= 0.725\ngini = 0.312\nsamples = 41\nvalue = [12.517, 52.213]"] ;
413 -> 414 ;
415 [label="gini = 0.143\nsamples = 20\nvalue = [3.129, 37.295]"] ;
414 -> 415 ;
416 [label="gini = 0.474\nsamples = 21\nvalue = [9.388, 14.918]"] ;
414 -> 416 ;
417 [label="X[0] <= 0.919\ngini = 0.48\nsamples = 201\nvalue = [107.648, 72.104]"] ;
413 -> 417 ;
418 [label="X[6] <= 0.807\ngini = 0.39\nsamples = 156\nvalue = [89.498, 32.322]"] ;
417 -> 418 ;
419 [label="X[2] <= 49.5\ngini = 0.439\nsamples = 111\nvalue = [61.96, 29.836]"] ;
418 -> 419 ;
420 [label="X[0] <= 0.753\ngini = 0.283\nsamples = 61\nvalue = [36.3, 7.459]"] ;
419 -> 420 ;
421 [label="gini = 0.479\nsamples = 21\nvalue = [11.265, 7.459]"] ;
420 -> 421 ;
422 [label="gini = 0.0\nsamples = 40\nvalue = [25.034, 0.0]"] ;
420 -> 422 ;
423 [label="X[0] <= 0.772\ngini = 0.498\nsamples = 50\nvalue = [25.66, 22.377]"] ;
419 -> 423 ;
424 [label="gini = 0.277\nsamples = 21\nvalue = [12.517, 2.486]"] ;
423 -> 424 ;
425 [label="gini = 0.479\nsamples = 29\nvalue = [13.143, 19.891]"] ;
423 -> 425 ;
426 [label="X[2] <= 45.5\ngini = 0.152\nsamples = 45\nvalue = [27.538, 2.486]"] ;
418 -> 426 ;
427 [label="gini = 0.286\nsamples = 20\nvalue = [11.891, 2.486]"] ;
426 -> 427 ;
428 [label="gini = -0.0\nsamples = 25\nvalue = [15.646, 0.0]"] ;
426 -> 428 ;
429 [label="X[2] <= 84.5\ngini = 0.43\nsamples = 45\nvalue = [18.15, 39.781]"] ;
417 -> 429 ;
430 [label="gini = 0.306\nsamples = 25\nvalue = [7.51, 32.322]"] ;
429 -> 430 ;
431 [label="gini = 0.485\nsamples = 20\nvalue = [10.64, 7.459]"] ;
429 -> 431 ;
432 [label="X[2] <= 121.5\ngini = 0.274\nsamples = 213\nvalue = [127.05, 24.863]"] ;
402 -> 432 ;
433 [label="X[1] <= 0.087\ngini = 0.226\nsamples = 193\nvalue = [116.41, 17.404]"] ;
432 -> 433 ;
434 [label="X[2] <= 26.5\ngini = 0.147\nsamples = 140\nvalue = [85.743, 7.459]"] ;
433 -> 434 ;
435 [label="gini = 0.425\nsamples = 20\nvalue = [11.265, 4.973]"] ;
434 -> 435 ;
436 [label="X[2] <= 65.5\ngini = 0.063\nsamples = 120\nvalue = [74.477, 2.486]"] ;
434 -> 436 ;
437 [label="X[0] <= 1.111\ngini = 0.141\nsamples = 49\nvalue = [30.041, 2.486]"] ;
436 -> 437 ;
438 [label="gini = 0.0\nsamples = 29\nvalue = [18.15, 0.0]"] ;
437 -> 438 ;
439 [label="gini = 0.286\nsamples = 20\nvalue = [11.891, 2.486]"] ;
437 -> 439 ;
440 [label="gini = 0.0\nsamples = 71\nvalue = [44.436, 0.0]"] ;
436 -> 440 ;
441 [label="X[4] <= 0.955\ngini = 0.37\nsamples = 53\nvalue = [30.667, 9.945]"] ;
433 -> 441 ;
442 [label="gini = 0.224\nsamples = 28\nvalue = [16.898, 2.486]"] ;
441 -> 442 ;
443 [label="gini = 0.456\nsamples = 25\nvalue = [13.769, 7.459]"] ;
441 -> 443 ;
444 [label="gini = 0.485\nsamples = 20\nvalue = [10.64, 7.459]"] ;
432 -> 444 ;
445 [label="X[6] <= 1.991\ngini = 0.498\nsamples = 641\nvalue = [327.951, 290.901]"] ;
401 -> 445 ;
446 [label="X[3] <= 0.218\ngini = 0.5\nsamples = 517\nvalue = [256.603, 266.038]"] ;
445 -> 446 ;
447 [label="X[3] <= 0.138\ngini = 0.498\nsamples = 445\nvalue = [227.813, 201.393]"] ;
446 -> 447 ;
448 [label="X[3] <= 0.095\ngini = 0.496\nsamples = 304\nvalue = [146.451, 174.044]"] ;
447 -> 448 ;
449 [label="X[3] <= 0.033\ngini = 0.499\nsamples = 255\nvalue = [130.179, 116.858]"] ;
448 -> 449 ;
450 [label="X[0] <= 0.84\ngini = 0.497\nsamples = 202\nvalue = [97.634, 114.372]"] ;
449 -> 450 ;
451 [label="X[0] <= 0.816\ngini = 0.482\nsamples = 123\nvalue = [65.715, 44.754]"] ;
450 -> 451 ;
452 [label="X[6] <= 0.489\ngini = 0.499\nsamples = 96\nvalue = [48.817, 44.754]"] ;
451 -> 452 ;
453 [label="gini = 0.409\nsamples = 26\nvalue = [10.014, 24.863]"] ;
452 -> 453 ;
454 [label="X[2] <= 61.5\ngini = 0.448\nsamples = 70\nvalue = [38.803, 19.891]"] ;
452 -> 454 ;
455 [label="gini = 0.499\nsamples = 38\nvalue = [19.402, 17.404]"] ;
454 -> 455 ;
456 [label="gini = 0.201\nsamples = 32\nvalue = [19.402, 2.486]"] ;
454 -> 456 ;
457 [label="gini = 0.0\nsamples = 27\nvalue = [16.898, 0.0]"] ;
451 -> 457 ;
458 [label="X[1] <= 0.118\ngini = 0.431\nsamples = 79\nvalue = [31.919, 69.617]"] ;
450 -> 458 ;
459 [label="gini = 0.479\nsamples = 21\nvalue = [11.265, 7.459]"] ;
458 -> 459 ;
460 [label="X[2] <= 82.0\ngini = 0.374\nsamples = 58\nvalue = [20.653, 62.158]"] ;
458 -> 460 ;
461 [label="gini = 0.258\nsamples = 24\nvalue = [6.259, 34.809]"] ;
460 -> 461 ;
462 [label="gini = 0.452\nsamples = 34\nvalue = [14.395, 27.35]"] ;
460 -> 462 ;
463 [label="X[0] <= 0.802\ngini = 0.132\nsamples = 53\nvalue = [32.545, 2.486]"] ;
449 -> 463 ;
464 [label="gini = 0.286\nsamples = 20\nvalue = [11.891, 2.486]"] ;
463 -> 464 ;
465 [label="gini = 0.0\nsamples = 33\nvalue = [20.653, 0.0]"] ;
463 -> 465 ;
466 [label="X[6] <= 0.97\ngini = 0.345\nsamples = 49\nvalue = [16.272, 57.186]"] ;
448 -> 466 ;
467 [label="gini = 0.17\nsamples = 24\nvalue = [4.381, 42.268]"] ;
466 -> 467 ;
468 [label="gini = 0.494\nsamples = 25\nvalue = [11.891, 14.918]"] ;
466 -> 468 ;
469 [label="X[1] <= 0.223\ngini = 0.377\nsamples = 141\nvalue = [81.362, 27.35]"] ;
447 -> 469 ;
470 [label="X[0] <= 0.907\ngini = 0.201\nsamples = 96\nvalue = [58.205, 7.459]"] ;
469 -> 470 ;
471 [label="X[3] <= 0.194\ngini = 0.096\nsamples = 76\nvalue = [46.939, 2.486]"] ;
470 -> 471 ;
472 [label="gini = 0.0\nsamples = 55\nvalue = [34.422, 0.0]"] ;
471 -> 472 ;
473 [label="gini = 0.277\nsamples = 21\nvalue = [12.517, 2.486]"] ;
471 -> 473 ;
474 [label="gini = 0.425\nsamples = 20\nvalue = [11.265, 4.973]"] ;
470 -> 474 ;
475 [label="X[6] <= 1.192\ngini = 0.497\nsamples = 45\nvalue = [23.157, 19.891]"] ;
469 -> 475 ;
476 [label="gini = 0.466\nsamples = 20\nvalue = [8.762, 14.918]"] ;
475 -> 476 ;
477 [label="gini = 0.382\nsamples = 25\nvalue = [14.395, 4.973]"] ;
475 -> 477 ;
478 [label="X[4] <= 0.721\ngini = 0.426\nsamples = 72\nvalue = [28.79, 64.645]"] ;
446 -> 478 ;
479 [label="X[0] <= 0.843\ngini = 0.482\nsamples = 48\nvalue = [21.905, 32.322]"] ;
478 -> 479 ;
480 [label="gini = 0.425\nsamples = 20\nvalue = [11.265, 4.973]"] ;
479 -> 480 ;
481 [label="gini = 0.403\nsamples = 28\nvalue = [10.64, 27.35]"] ;
479 -> 481 ;
482 [label="gini = 0.29\nsamples = 24\nvalue = [6.884, 32.322]"] ;
478 -> 482 ;
483 [label="X[0] <= 1.919\ngini = 0.383\nsamples = 124\nvalue = [71.348, 24.863]"] ;
445 -> 483 ;
484 [label="X[0] <= 1.495\ngini = 0.288\nsamples = 99\nvalue = [58.831, 12.432]"] ;
483 -> 484 ;
485 [label="gini = 0.469\nsamples = 38\nvalue = [20.653, 12.432]"] ;
484 -> 485 ;
486 [label="gini = 0.0\nsamples = 61\nvalue = [38.177, 0.0]"] ;
484 -> 486 ;
487 [label="gini = 0.5\nsamples = 25\nvalue = [12.517, 12.432]"] ;
483 -> 487 ;
488 [label="X[6] <= 0.807\ngini = 0.477\nsamples = 2351\nvalue = [1060.207, 1633.523]"] ;
394 -> 488 ;
489 [label="X[0] <= 0.936\ngini = 0.354\nsamples = 699\nvalue = [237.201, 795.628]"] ;
488 -> 489 ;
490 [label="X[4] <= 0.905\ngini = 0.331\nsamples = 584\nvalue = [187.132, 708.606]"] ;
489 -> 490 ;
491 [label="X[6] <= 0.17\ngini = 0.311\nsamples = 534\nvalue = [162.724, 681.256]"] ;
490 -> 491 ;
492 [label="X[5] <= 0.569\ngini = 0.203\nsamples = 194\nvalue = [41.307, 318.251]"] ;
491 -> 492 ;
493 [label="X[2] <= 48.5\ngini = 0.17\nsamples = 168\nvalue = [30.667, 295.874]"] ;
492 -> 493 ;
494 [label="X[2] <= 34.5\ngini = 0.244\nsamples = 88\nvalue = [21.905, 131.776]"] ;
493 -> 494 ;
495 [label="X[2] <= 24.0\ngini = 0.1\nsamples = 44\nvalue = [5.007, 89.508]"] ;
494 -> 495 ;
496 [label="gini = 0.22\nsamples = 22\nvalue = [5.007, 34.809]"] ;
495 -> 496 ;
497 [label="gini = 0.0\nsamples = 22\nvalue = [0.0, 54.699]"] ;
495 -> 497 ;
498 [label="X[4] <= 0.483\ngini = 0.408\nsamples = 44\nvalue = [16.898, 42.268]"] ;
494 -> 498 ;
499 [label="gini = 0.5\nsamples = 20\nvalue = [10.014, 9.945]"] ;
498 -> 499 ;
500 [label="gini = 0.29\nsamples = 24\nvalue = [6.884, 32.322]"] ;
498 -> 500 ;
501 [label="X[3] <= 0.24\ngini = 0.096\nsamples = 80\nvalue = [8.762, 164.098]"] ;
493 -> 501 ;
502 [label="gini = 0.215\nsamples = 28\nvalue = [6.259, 44.754]"] ;
501 -> 502 ;
503 [label="X[2] <= 62.5\ngini = 0.04\nsamples = 52\nvalue = [2.503, 119.344]"] ;
501 -> 503 ;
504 [label="gini = 0.0\nsamples = 25\nvalue = [0.0, 62.158]"] ;
503 -> 504 ;
505 [label="gini = 0.08\nsamples = 27\nvalue = [2.503, 57.186]"] ;
503 -> 505 ;
506 [label="gini = 0.437\nsamples = 26\nvalue = [10.64, 22.377]"] ;
492 -> 506 ;
507 [label="X[4] <= 0.036\ngini = 0.376\nsamples = 340\nvalue = [121.417, 363.005]"] ;
491 -> 507 ;
508 [label="gini = 0.286\nsamples = 20\nvalue = [11.891, 2.486]"] ;
507 -> 508 ;
509 [label="X[2] <= 97.0\ngini = 0.357\nsamples = 320\nvalue = [109.525, 360.519]"] ;
507 -> 509 ;
510 [label="X[4] <= 0.852\ngini = 0.379\nsamples = 289\nvalue = [103.893, 305.819]"] ;
509 -> 510 ;
511 [label="X[3] <= 0.567\ngini = 0.397\nsamples = 262\nvalue = [98.26, 261.065]"] ;
510 -> 511 ;
512 [label="X[6] <= 0.614\ngini = 0.433\nsamples = 196\nvalue = [79.484, 171.557]"] ;
511 -> 512 ;
513 [label="X[4] <= 0.483\ngini = 0.381\nsamples = 109\nvalue = [39.429, 114.372]"] ;
512 -> 513 ;
514 [label="gini = 0.5\nsamples = 25\nvalue = [12.517, 12.432]"] ;
513 -> 514 ;
515 [label="X[1] <= 0.483\ngini = 0.33\nsamples = 84\nvalue = [26.912, 101.94]"] ;
513 -> 515 ;
516 [label="gini = 0.455\nsamples = 22\nvalue = [9.388, 17.404]"] ;
515 -> 516 ;
517 [label="X[3] <= 0.084\ngini = 0.284\nsamples = 62\nvalue = [17.524, 84.535]"] ;
515 -> 517 ;
518 [label="gini = 0.403\nsamples = 28\nvalue = [10.64, 27.35]"] ;
517 -> 518 ;
519 [label="gini = 0.192\nsamples = 34\nvalue = [6.884, 57.186]"] ;
517 -> 519 ;
520 [label="X[1] <= 0.551\ngini = 0.484\nsamples = 87\nvalue = [40.055, 57.186]"] ;
512 -> 520 ;
521 [label="X[0] <= 0.736\ngini = 0.431\nsamples = 62\nvalue = [25.034, 54.699]"] ;
520 -> 521 ;
522 [label="gini = 0.354\nsamples = 35\nvalue = [11.891, 39.781]"] ;
521 -> 522 ;
523 [label="gini = 0.498\nsamples = 27\nvalue = [13.143, 14.918]"] ;
521 -> 523 ;
524 [label="gini = 0.244\nsamples = 25\nvalue = [15.021, 2.486]"] ;
520 -> 524 ;
525 [label="X[2] <= 25.5\ngini = 0.287\nsamples = 66\nvalue = [18.776, 89.508]"] ;
511 -> 525 ;
526 [label="gini = 0.486\nsamples = 23\nvalue = [10.64, 14.918]"] ;
525 -> 526 ;
527 [label="X[0] <= 0.747\ngini = 0.177\nsamples = 43\nvalue = [8.136, 74.59]"] ;
525 -> 527 ;
528 [label="gini = 0.209\nsamples = 23\nvalue = [5.007, 37.295]"] ;
527 -> 528 ;
529 [label="gini = 0.143\nsamples = 20\nvalue = [3.129, 37.295]"] ;
527 -> 529 ;
530 [label="gini = 0.199\nsamples = 27\nvalue = [5.633, 44.754]"] ;
510 -> 530 ;
531 [label="gini = 0.169\nsamples = 31\nvalue = [5.633, 54.699]"] ;
509 -> 531 ;
532 [label="X[2] <= 31.0\ngini = 0.498\nsamples = 50\nvalue = [24.409, 27.35]"] ;
490 -> 532 ;
533 [label="gini = 0.471\nsamples = 30\nvalue = [16.272, 9.945]"] ;
532 -> 533 ;
534 [label="gini = 0.434\nsamples = 20\nvalue = [8.136, 17.404]"] ;
532 -> 534 ;
535 [label="X[0] <= 1.132\ngini = 0.464\nsamples = 115\nvalue = [50.069, 87.022]"] ;
489 -> 535 ;
536 [label="X[0] <= 0.993\ngini = 0.471\nsamples = 75\nvalue = [40.681, 24.863]"] ;
535 -> 536 ;
537 [label="gini = 0.445\nsamples = 21\nvalue = [8.762, 17.404]"] ;
536 -> 537 ;
538 [label="X[6] <= 0.466\ngini = 0.307\nsamples = 54\nvalue = [31.919, 7.459]"] ;
536 -> 538 ;
539 [label="gini = 0.0\nsamples = 34\nvalue = [21.279, 0.0]"] ;
538 -> 539 ;
540 [label="gini = 0.485\nsamples = 20\nvalue = [10.64, 7.459]"] ;
538 -> 540 ;
541 [label="X[6] <= 0.533\ngini = 0.228\nsamples = 40\nvalue = [9.388, 62.158]"] ;
535 -> 541 ;
542 [label="gini = 0.176\nsamples = 20\nvalue = [3.755, 34.809]"] ;
541 -> 542 ;
543 [label="gini = 0.283\nsamples = 20\nvalue = [5.633, 27.35]"] ;
541 -> 543 ;
544 [label="X[0] <= 0.807\ngini = 0.5\nsamples = 1652\nvalue = [823.006, 837.896]"] ;
488 -> 544 ;
545 [label="X[4] <= 0.223\ngini = 0.451\nsamples = 317\nvalue = [175.241, 91.994]"] ;
544 -> 545 ;
546 [label="gini = 0.0\nsamples = 50\nvalue = [31.293, 0.0]"] ;
545 -> 546 ;
547 [label="X[2] <= 21.5\ngini = 0.476\nsamples = 267\nvalue = [143.948, 91.994]"] ;
545 -> 547 ;
548 [label="X[1] <= 0.657\ngini = 0.215\nsamples = 59\nvalue = [35.674, 4.973]"] ;
547 -> 548 ;
549 [label="gini = 0.0\nsamples = 37\nvalue = [23.157, 0.0]"] ;
548 -> 549 ;
550 [label="gini = 0.407\nsamples = 22\nvalue = [12.517, 4.973]"] ;
548 -> 550 ;
551 [label="X[1] <= 0.675\ngini = 0.494\nsamples = 208\nvalue = [108.274, 87.022]"] ;
547 -> 551 ;
552 [label="X[0] <= 0.69\ngini = 0.5\nsamples = 166\nvalue = [83.239, 82.049]"] ;
551 -> 552 ;
553 [label="X[4] <= 0.655\ngini = 0.471\nsamples = 72\nvalue = [31.919, 52.213]"] ;
552 -> 553 ;
554 [label="gini = 0.351\nsamples = 26\nvalue = [8.762, 29.836]"] ;
553 -> 554 ;
555 [label="X[4] <= 0.856\ngini = 0.5\nsamples = 46\nvalue = [23.157, 22.377]"] ;
553 -> 555 ;
556 [label="gini = 0.244\nsamples = 25\nvalue = [15.021, 2.486]"] ;
555 -> 556 ;
557 [label="gini = 0.412\nsamples = 21\nvalue = [8.136, 19.891]"] ;
555 -> 557 ;
558 [label="X[2] <= 85.0\ngini = 0.465\nsamples = 94\nvalue = [51.321, 29.836]"] ;
552 -> 558 ;
559 [label="X[6] <= 1.221\ngini = 0.212\nsamples = 60\nvalue = [36.3, 4.973]"] ;
558 -> 559 ;
560 [label="gini = 0.351\nsamples = 29\nvalue = [16.898, 4.973]"] ;
559 -> 560 ;
561 [label="gini = 0.0\nsamples = 31\nvalue = [19.402, 0.0]"] ;
559 -> 561 ;
562 [label="gini = 0.47\nsamples = 34\nvalue = [15.021, 24.863]"] ;
558 -> 562 ;
563 [label="X[3] <= 0.394\ngini = 0.277\nsamples = 42\nvalue = [25.034, 4.973]"] ;
551 -> 563 ;
564 [label="gini = -0.0\nsamples = 22\nvalue = [13.769, 0.0]"] ;
563 -> 564 ;
565 [label="gini = 0.425\nsamples = 20\nvalue = [11.265, 4.973]"] ;
563 -> 565 ;
566 [label="X[2] <= 88.5\ngini = 0.498\nsamples = 1335\nvalue = [647.765, 745.901]"] ;
544 -> 566 ;
567 [label="X[4] <= 0.036\ngini = 0.471\nsamples = 622\nvalue = [276.004, 450.027]"] ;
566 -> 567 ;
568 [label="gini = 0.0\nsamples = 29\nvalue = [18.15, 0.0]"] ;
567 -> 568 ;
569 [label="X[0] <= 1.559\ngini = 0.463\nsamples = 593\nvalue = [257.854, 450.027]"] ;
567 -> 569 ;
570 [label="X[6] <= 1.769\ngini = 0.485\nsamples = 475\nvalue = [219.051, 310.792]"] ;
569 -> 570 ;
571 [label="X[0] <= 0.94\ngini = 0.442\nsamples = 290\nvalue = [120.165, 243.661]"] ;
570 -> 571 ;
572 [label="X[0] <= 0.881\ngini = 0.5\nsamples = 108\nvalue = [54.45, 52.213]"] ;
571 -> 572 ;
573 [label="X[0] <= 0.837\ngini = 0.478\nsamples = 61\nvalue = [27.538, 42.268]"] ;
572 -> 573 ;
574 [label="gini = 0.499\nsamples = 27\nvalue = [13.769, 12.432]"] ;
573 -> 574 ;
575 [label="gini = 0.432\nsamples = 34\nvalue = [13.769, 29.836]"] ;
573 -> 575 ;
576 [label="X[2] <= 61.5\ngini = 0.394\nsamples = 47\nvalue = [26.912, 9.945]"] ;
572 -> 576 ;
577 [label="gini = 0.493\nsamples = 24\nvalue = [12.517, 9.945]"] ;
576 -> 577 ;
578 [label="gini = 0.0\nsamples = 23\nvalue = [14.395, 0.0]"] ;
576 -> 578 ;
579 [label="X[5] <= 0.477\ngini = 0.38\nsamples = 182\nvalue = [65.715, 191.448]"] ;
571 -> 579 ;
580 [label="X[1] <= 0.36\ngini = 0.338\nsamples = 157\nvalue = [51.321, 186.475]"] ;
579 -> 580 ;
581 [label="gini = 0.49\nsamples = 28\nvalue = [13.143, 17.404]"] ;
580 -> 581 ;
582 [label="X[1] <= 0.563\ngini = 0.301\nsamples = 129\nvalue = [38.177, 169.071]"] ;
580 -> 582 ;
583 [label="gini = 0.133\nsamples = 34\nvalue = [5.007, 64.645]"] ;
582 -> 583 ;
584 [label="X[2] <= 62.5\ngini = 0.366\nsamples = 95\nvalue = [33.171, 104.426]"] ;
582 -> 584 ;
585 [label="X[2] <= 47.5\ngini = 0.276\nsamples = 50\nvalue = [13.769, 69.617]"] ;
584 -> 585 ;
586 [label="gini = 0.376\nsamples = 21\nvalue = [7.51, 22.377]"] ;
585 -> 586 ;
587 [label="gini = 0.207\nsamples = 29\nvalue = [6.259, 47.24]"] ;
585 -> 587 ;
588 [label="X[0] <= 1.245\ngini = 0.46\nsamples = 45\nvalue = [19.402, 34.809]"] ;
584 -> 588 ;
589 [label="gini = 0.499\nsamples = 23\nvalue = [11.265, 12.432]"] ;
588 -> 589 ;
590 [label="gini = 0.391\nsamples = 22\nvalue = [8.136, 22.377]"] ;
588 -> 590 ;
591 [label="gini = 0.382\nsamples = 25\nvalue = [14.395, 4.973]"] ;
579 -> 591 ;
592 [label="X[0] <= 1.4\ngini = 0.482\nsamples = 185\nvalue = [98.886, 67.131]"] ;
570 -> 592 ;
593 [label="X[4] <= 0.789\ngini = 0.441\nsamples = 137\nvalue = [76.355, 37.295]"] ;
592 -> 593 ;
594 [label="X[4] <= 0.542\ngini = 0.477\nsamples = 107\nvalue = [57.579, 37.295]"] ;
593 -> 594 ;
595 [label="X[0] <= 1.264\ngini = 0.371\nsamples = 66\nvalue = [38.177, 12.432]"] ;
594 -> 595 ;
596 [label="X[0] <= 1.136\ngini = 0.455\nsamples = 42\nvalue = [23.157, 12.432]"] ;
595 -> 596 ;
597 [label="gini = 0.407\nsamples = 22\nvalue = [12.517, 4.973]"] ;
596 -> 597 ;
598 [label="gini = 0.485\nsamples = 20\nvalue = [10.64, 7.459]"] ;
596 -> 598 ;
599 [label="gini = 0.0\nsamples = 24\nvalue = [15.021, 0.0]"] ;
595 -> 599 ;
600 [label="X[5] <= 0.261\ngini = 0.492\nsamples = 41\nvalue = [19.402, 24.863]"] ;
594 -> 600 ;
601 [label="gini = 0.36\nsamples = 20\nvalue = [6.884, 22.377]"] ;
600 -> 601 ;
602 [label="gini = 0.277\nsamples = 21\nvalue = [12.517, 2.486]"] ;
600 -> 602 ;
603 [label="gini = 0.0\nsamples = 30\nvalue = [18.776, 0.0]"] ;
593 -> 603 ;
604 [label="X[6] <= 2.435\ngini = 0.49\nsamples = 48\nvalue = [22.531, 29.836]"] ;
592 -> 604 ;
605 [label="gini = 0.416\nsamples = 24\nvalue = [9.388, 22.377]"] ;
604 -> 605 ;
606 [label="gini = 0.462\nsamples = 24\nvalue = [13.143, 7.459]"] ;
604 -> 606 ;
607 [label="X[6] <= 2.465\ngini = 0.341\nsamples = 118\nvalue = [38.803, 139.235]"] ;
569 -> 607 ;
608 [label="X[5] <= 0.156\ngini = 0.183\nsamples = 45\nvalue = [8.762, 77.076]"] ;
607 -> 608 ;
609 [label="gini = 0.064\nsamples = 25\nvalue = [1.878, 54.699]"] ;
608 -> 609 ;
610 [label="gini = 0.36\nsamples = 20\nvalue = [6.884, 22.377]"] ;
608 -> 610 ;
611 [label="X[3] <= 0.275\ngini = 0.439\nsamples = 73\nvalue = [30.041, 62.158]"] ;
607 -> 611 ;
612 [label="gini = 0.486\nsamples = 33\nvalue = [17.524, 12.432]"] ;
611 -> 612 ;
613 [label="X[3] <= 0.519\ngini = 0.321\nsamples = 40\nvalue = [12.517, 49.727]"] ;
611 -> 613 ;
614 [label="gini = 0.246\nsamples = 20\nvalue = [5.007, 29.836]"] ;
613 -> 614 ;
615 [label="gini = 0.398\nsamples = 20\nvalue = [7.51, 19.891]"] ;
613 -> 615 ;
616 [label="X[1] <= 0.725\ngini = 0.494\nsamples = 713\nvalue = [371.761, 295.874]"] ;
566 -> 616 ;
617 [label="X[6] <= 1.281\ngini = 0.5\nsamples = 574\nvalue = [289.147, 278.47]"] ;
616 -> 617 ;
618 [label="X[3] <= 0.27\ngini = 0.396\nsamples = 72\nvalue = [26.912, 72.104]"] ;
617 -> 618 ;
619 [label="gini = 0.5\nsamples = 34\nvalue = [16.898, 17.404]"] ;
618 -> 619 ;
620 [label="gini = 0.262\nsamples = 38\nvalue = [10.014, 54.699]"] ;
618 -> 620 ;
621 [label="X[4] <= 0.962\ngini = 0.493\nsamples = 502\nvalue = [262.235, 206.366]"] ;
617 -> 621 ;
622 [label="X[0] <= 1.748\ngini = 0.471\nsamples = 442\nvalue = [239.704, 146.694]"] ;
621 -> 622 ;
623 [label="X[4] <= 0.207\ngini = 0.42\nsamples = 338\nvalue = [190.887, 82.049]"] ;
622 -> 623 ;
624 [label="X[6] <= 2.421\ngini = 0.495\nsamples = 47\nvalue = [22.531, 27.35]"] ;
623 -> 624 ;
625 [label="gini = 0.436\nsamples = 23\nvalue = [9.388, 19.891]"] ;
624 -> 625 ;
626 [label="gini = 0.462\nsamples = 24\nvalue = [13.143, 7.459]"] ;
624 -> 626 ;
627 [label="X[2] <= 145.5\ngini = 0.37\nsamples = 291\nvalue = [168.356, 54.699]"] ;
623 -> 627 ;
628 [label="X[0] <= 1.062\ngini = 0.323\nsamples = 266\nvalue = [156.465, 39.781]"] ;
627 -> 628 ;
629 [label="X[1] <= 0.564\ngini = 0.464\nsamples = 63\nvalue = [34.422, 19.891]"] ;
628 -> 629 ;
630 [label="gini = 0.5\nsamples = 36\nvalue = [18.15, 17.404]"] ;
629 -> 630 ;
631 [label="gini = 0.23\nsamples = 27\nvalue = [16.272, 2.486]"] ;
629 -> 631 ;
632 [label="X[2] <= 112.5\ngini = 0.241\nsamples = 203\nvalue = [122.043, 19.891]"] ;
628 -> 632 ;
633 [label="X[5] <= 0.045\ngini = 0.394\nsamples = 94\nvalue = [53.824, 19.891]"] ;
632 -> 633 ;
634 [label="X[6] <= 1.976\ngini = 0.477\nsamples = 50\nvalue = [26.912, 17.404]"] ;
633 -> 634 ;
635 [label="gini = 0.23\nsamples = 27\nvalue = [16.272, 2.486]"] ;
634 -> 635 ;
636 [label="gini = 0.486\nsamples = 23\nvalue = [10.64, 14.918]"] ;
634 -> 636 ;
637 [label="X[2] <= 100.5\ngini = 0.155\nsamples = 44\nvalue = [26.912, 2.486]"] ;
633 -> 637 ;
638 [label="gini = 0.0\nsamples = 24\nvalue = [15.021, 0.0]"] ;
637 -> 638 ;
639 [label="gini = 0.286\nsamples = 20\nvalue = [11.891, 2.486]"] ;
637 -> 639 ;
640 [label="gini = -0.0\nsamples = 109\nvalue = [68.219, 0.0]"] ;
632 -> 640 ;
641 [label="gini = 0.494\nsamples = 25\nvalue = [11.891, 14.918]"] ;
627 -> 641 ;
642 [label="X[3] <= 0.095\ngini = 0.49\nsamples = 104\nvalue = [48.817, 64.645]"] ;
622 -> 642 ;
643 [label="gini = 0.448\nsamples = 35\nvalue = [19.402, 9.945]"] ;
642 -> 643 ;
644 [label="X[5] <= 0.031\ngini = 0.455\nsamples = 69\nvalue = [29.415, 54.699]"] ;
642 -> 644 ;
645 [label="gini = 0.321\nsamples = 28\nvalue = [8.762, 34.809]"] ;
644 -> 645 ;
646 [label="X[0] <= 2.129\ngini = 0.5\nsamples = 41\nvalue = [20.653, 19.891]"] ;
644 -> 646 ;
647 [label="gini = 0.398\nsamples = 20\nvalue = [7.51, 19.891]"] ;
646 -> 647 ;
648 [label="gini = 0.0\nsamples = 21\nvalue = [13.143, 0.0]"] ;
646 -> 648 ;
649 [label="X[6] <= 2.968\ngini = 0.398\nsamples = 60\nvalue = [22.531, 59.672]"] ;
621 -> 649 ;
650 [label="gini = 0.311\nsamples = 37\nvalue = [11.265, 47.24]"] ;
649 -> 650 ;
651 [label="gini = 0.499\nsamples = 23\nvalue = [11.265, 12.432]"] ;
649 -> 651 ;
652 [label="X[0] <= 1.839\ngini = 0.287\nsamples = 139\nvalue = [82.613, 17.404]"] ;
616 -> 652 ;
653 [label="X[2] <= 135.0\ngini = 0.063\nsamples = 119\nvalue = [73.851, 2.486]"] ;
652 -> 653 ;
654 [label="gini = 0.0\nsamples = 99\nvalue = [61.96, 0.0]"] ;
653 -> 654 ;
655 [label="gini = 0.286\nsamples = 20\nvalue = [11.891, 2.486]"] ;
653 -> 655 ;
656 [label="gini = 0.466\nsamples = 20\nvalue = [8.762, 14.918]"] ;
652 -> 656 ;
}
